\data\
ngram 1=16
ngram 2=21

\1-grams:
-1.5304952	<unk>	0
-1.5304952	<s>	-0.30103
-1.365685	</s>	0
-1.365685	this	-0.30103
-1.365685	is	-0.30103
-1.365685	a	-0.30103
-1.0942103	very	-0.30103
-0.6713107	simple	-0.30103
-1.365685	text	-0.30103
-0.7811157	.	-0.42596874
-1.0942103	it	-0.30103
-1.365685	uses	-0.30103
-1.365685	words	-0.30103
-1.365685	so	-0.30103
-1.365685	about	-0.30103
-1.365685	make	-0.30103

\2-grams:
-0.19303599	. </s>
-0.56616306	<s> this
-0.28271076	this is
-0.56616306	is a
-0.26740572	a very
-0.26740572	uses very
-0.63530654	<s> simple
-0.2171148	very simple
-0.2171148	so simple
-0.2171148	make simple
-0.654544	simple text
-0.23450549	text .
-0.47786048	it .
-0.47786048	words .
-0.78186	<s> it
-0.26740572	about it
-0.56616306	it uses
-0.654544	simple words
-0.56616306	is so
-0.9152738	simple about
-0.56616306	words make

\end\
