\data\
ngram 1=16
ngram 2=21

\1-grams:
-1.5304952	<unk>	0
-1.5304952	<s>	-0.30103
-1.365685	</s>	0
-1.365685	撤	-0.30103
-1.365685	是	-0.30103
-1.365685	一	-0.30103
-1.0942103	汗	-0.30103
-0.6713107	合	-0.30103
-1.365685	里	-0.30103
-0.7811157	。	-0.42596874
-1.0942103	他	-0.30103
-1.365685	可	-0.30103
-1.365685	以	-0.30103
-1.365685	林	-0.30103
-1.365685	卡	-0.30103
-1.365685	片	-0.30103

\2-grams:
-0.19303599	. </s>
-0.56616306	<s> 撤
-0.28271076	撤 是
-0.56616306	是 一
-0.26740572	一 汗
-0.26740572	可 汗
-0.63530654	<s> 合
-0.2171148	汗 合
-0.2171148	林 合
-0.2171148	片 合
-0.654544	合 里
-0.23450549	里 .
-0.47786048	他 .
-0.47786048	以 .
-0.78186	<s> 他
-0.26740572	卡 他
-0.56616306	他 可
-0.654544	合 以
-0.56616306	是 林
-0.9152738	合 卡
-0.56616306	以 片

\end\
